digraph Tree {
node [shape=box] ;
0 [label="Acceleration y (m/s^2) <= 0.179\nentropy = 2.322\nsamples = 382\nvalue = [76, 77, 76, 77, 76]\nclass = labelNo_activity"] ;
1 [label="Acceleration y (m/s^2) <= -0.844\nentropy = 1.0\nsamples = 151\nvalue = [74, 77, 0, 0, 0]\nclass = labelNo_activity"] ;
0 -> 1 [labeldistance=2.5, labelangle=45, headlabel="True"] ;
2 [label="entropy = 0.0\nsamples = 74\nvalue = [74, 0, 0, 0, 0]\nclass = labelCycling"] ;
1 -> 2 ;
3 [label="entropy = 0.0\nsamples = 77\nvalue = [0, 77, 0, 0, 0]\nclass = labelNo_activity"] ;
1 -> 3 ;
4 [label="Magnetic field x (µT) <= -17.114\nentropy = 1.643\nsamples = 231\nvalue = [2, 0, 76, 77, 76]\nclass = labelSitting"] ;
0 -> 4 [labeldistance=2.5, labelangle=-45, headlabel="False"] ;
5 [label="entropy = 0.0\nsamples = 77\nvalue = [0, 0, 0, 77, 0]\nclass = labelSitting"] ;
4 -> 5 ;
6 [label="Magnetic field z (µT) <= 10.486\nentropy = 1.087\nsamples = 154\nvalue = [2, 0, 76, 0, 76]\nclass = labelRunning"] ;
4 -> 6 ;
7 [label="Gyroscope y (rad/s) <= -0.21\nentropy = 0.347\nsamples = 77\nvalue = [2, 0, 2, 0, 73]\nclass = labelWalking"] ;
6 -> 7 ;
8 [label="entropy = 1.157\nsamples = 10\nvalue = [1, 0, 2, 0, 7]\nclass = labelWalking"] ;
7 -> 8 ;
9 [label="Linear Acceleration y (m/s^2) <= -0.617\nentropy = 0.112\nsamples = 67\nvalue = [1, 0, 0, 0, 66]\nclass = labelWalking"] ;
7 -> 9 ;
10 [label="entropy = 0.469\nsamples = 10\nvalue = [1, 0, 0, 0, 9]\nclass = labelWalking"] ;
9 -> 10 ;
11 [label="entropy = 0.0\nsamples = 57\nvalue = [0, 0, 0, 0, 57]\nclass = labelWalking"] ;
9 -> 11 ;
12 [label="Magnetic field z (µT) <= 13.408\nentropy = 0.238\nsamples = 77\nvalue = [0, 0, 74, 0, 3]\nclass = labelRunning"] ;
6 -> 12 ;
13 [label="entropy = 0.881\nsamples = 10\nvalue = [0, 0, 7, 0, 3]\nclass = labelRunning"] ;
12 -> 13 ;
14 [label="entropy = 0.0\nsamples = 67\nvalue = [0, 0, 67, 0, 0]\nclass = labelRunning"] ;
12 -> 14 ;
}