digraph Tree {
node [shape=box] ;
0 [label="Magnetic field z (µT) <= 11.905\ngini = 0.32\nsamples = 4202\nvalue = [3362, 840]\nclass = labelWalking"] ;
1 [label="Acceleration y (m/s^2) <= 0.172\ngini = 0.465\nsamples = 2265\nvalue = [1430, 835]\nclass = labelWalking"] ;
0 -> 1 [labeldistance=2.5, labelangle=45, headlabel="True"] ;
2 [label="Height (m) <= 1.142\ngini = 0.003\nsamples = 1348\nvalue = [1346, 2]\nclass = labelWalking"] ;
1 -> 2 ;
3 [label="Acceleration z (m/s^2) <= 9.487\ngini = 0.001\nsamples = 1346\nvalue = [1345, 1]\nclass = labelWalking"] ;
2 -> 3 ;
4 [label="gini = 0.0\nsamples = 1344\nvalue = [1344, 0]\nclass = labelWalking"] ;
3 -> 4 ;
5 [label="gini = 0.5\nsamples = 2\nvalue = [1, 1]\nclass = labelWalking"] ;
3 -> 5 ;
6 [label="gini = 0.5\nsamples = 2\nvalue = [1, 1]\nclass = labelWalking"] ;
2 -> 6 ;
7 [label="Gyroscope z (rad/s) <= -0.634\ngini = 0.166\nsamples = 917\nvalue = [84, 833]\nclass = undefined"] ;
1 -> 7 ;
8 [label="Magnetic field z (µT) <= 7.782\ngini = 0.133\nsamples = 42\nvalue = [39, 3]\nclass = labelWalking"] ;
7 -> 8 ;
9 [label="Gyroscope x (rad/s) <= 0.079\ngini = 0.48\nsamples = 5\nvalue = [2, 3]\nclass = undefined"] ;
8 -> 9 ;
10 [label="gini = 0.0\nsamples = 3\nvalue = [0, 3]\nclass = undefined"] ;
9 -> 10 ;
11 [label="gini = 0.0\nsamples = 2\nvalue = [2, 0]\nclass = labelWalking"] ;
9 -> 11 ;
12 [label="gini = 0.0\nsamples = 37\nvalue = [37, 0]\nclass = labelWalking"] ;
8 -> 12 ;
13 [label="Magnetic field z (µT) <= -8.794\ngini = 0.098\nsamples = 875\nvalue = [45, 830]\nclass = undefined"] ;
7 -> 13 ;
14 [label="gini = 0.0\nsamples = 24\nvalue = [24, 0]\nclass = labelWalking"] ;
13 -> 14 ;
15 [label="Linear Acceleration x (m/s^2) <= -3.374\ngini = 0.048\nsamples = 851\nvalue = [21, 830]\nclass = undefined"] ;
13 -> 15 ;
16 [label="Linear Acceleration z (m/s^2) <= 0.491\ngini = 0.165\nsamples = 11\nvalue = [10, 1]\nclass = labelWalking"] ;
15 -> 16 ;
17 [label="gini = 0.0\nsamples = 9\nvalue = [9, 0]\nclass = labelWalking"] ;
16 -> 17 ;
18 [label="gini = 0.5\nsamples = 2\nvalue = [1, 1]\nclass = labelWalking"] ;
16 -> 18 ;
19 [label="Linear Acceleration x (m/s^2) <= 1.48\ngini = 0.026\nsamples = 840\nvalue = [11, 829]\nclass = undefined"] ;
15 -> 19 ;
20 [label="Acceleration z (m/s^2) <= 11.372\ngini = 0.005\nsamples = 831\nvalue = [2, 829]\nclass = undefined"] ;
19 -> 20 ;
21 [label="Gyroscope x (rad/s) <= 0.51\ngini = 0.002\nsamples = 829\nvalue = [1, 828]\nclass = undefined"] ;
20 -> 21 ;
22 [label="gini = 0.0\nsamples = 827\nvalue = [0, 827]\nclass = undefined"] ;
21 -> 22 ;
23 [label="gini = 0.5\nsamples = 2\nvalue = [1, 1]\nclass = labelWalking"] ;
21 -> 23 ;
24 [label="gini = 0.5\nsamples = 2\nvalue = [1, 1]\nclass = labelWalking"] ;
20 -> 24 ;
25 [label="gini = 0.0\nsamples = 9\nvalue = [9, 0]\nclass = labelWalking"] ;
19 -> 25 ;
26 [label="Vertical Accuracy (m) <= 11.83\ngini = 0.005\nsamples = 1937\nvalue = [1932, 5]\nclass = labelWalking"] ;
0 -> 26 [labeldistance=2.5, labelangle=-45, headlabel="False"] ;
27 [label="Magnetic field z (µT) <= 13.23\ngini = 0.004\nsamples = 1934\nvalue = [1930, 4]\nclass = labelWalking"] ;
26 -> 27 ;
28 [label="Magnetic field z (µT) <= 13.174\ngini = 0.096\nsamples = 79\nvalue = [75, 4]\nclass = labelWalking"] ;
27 -> 28 ;
29 [label="Magnetic field x (µT) <= -3.088\ngini = 0.075\nsamples = 77\nvalue = [74, 3]\nclass = labelWalking"] ;
28 -> 29 ;
30 [label="Magnetic field x (µT) <= -3.701\ngini = 0.18\nsamples = 30\nvalue = [27, 3]\nclass = labelWalking"] ;
29 -> 30 ;
31 [label="Magnetic field z (µT) <= 12.152\ngini = 0.069\nsamples = 28\nvalue = [27, 1]\nclass = labelWalking"] ;
30 -> 31 ;
32 [label="Linear Acceleration x (m/s^2) <= -0.326\ngini = 0.375\nsamples = 4\nvalue = [3, 1]\nclass = labelWalking"] ;
31 -> 32 ;
33 [label="gini = 0.5\nsamples = 2\nvalue = [1, 1]\nclass = labelWalking"] ;
32 -> 33 ;
34 [label="gini = 0.0\nsamples = 2\nvalue = [2, 0]\nclass = labelWalking"] ;
32 -> 34 ;
35 [label="gini = 0.0\nsamples = 24\nvalue = [24, 0]\nclass = labelWalking"] ;
31 -> 35 ;
36 [label="gini = 0.0\nsamples = 2\nvalue = [0, 2]\nclass = undefined"] ;
30 -> 36 ;
37 [label="gini = 0.0\nsamples = 47\nvalue = [47, 0]\nclass = labelWalking"] ;
29 -> 37 ;
38 [label="gini = 0.5\nsamples = 2\nvalue = [1, 1]\nclass = labelWalking"] ;
28 -> 38 ;
39 [label="gini = 0.0\nsamples = 1855\nvalue = [1855, 0]\nclass = labelWalking"] ;
27 -> 39 ;
40 [label="gini = 0.444\nsamples = 3\nvalue = [2, 1]\nclass = labelWalking"] ;
26 -> 40 ;
}